Language model created by QuickLM on Sat Jun 17 01:40:24 EDT 2017
Copyright (c) 1996-2010 Carnegie Mellon University and Alexander I. Rudnicky

The model is in standard ARPA format, designed by Doug Paul while he was at MITRE.

The code that was used to produce this language model is available in Open Source.
Please visit http://www.speech.cs.cmu.edu/tools/ for more information

The (fixed) discount mass is 0.5. The backoffs are computed using the ratio method.
This model based on a corpus of 81 sentences and 70 words

\data\
ngram 1=70
ngram 2=164
ngram 3=161

\1-grams:
-1.0448 </s> -0.3010
-1.0448 <s> -0.2376
-2.6522 ABOUT -0.2594
-2.6522 ALL -0.2594
-2.1751 AS -0.2546
-2.6522 BOTTOM -0.2600
-2.1751 CHANGE -0.2772
-2.9533 CLIPBOARD -0.2996
-2.3512 CLOSE -0.2562
-2.3512 COMMAND -0.2991
-2.6522 COMMANDS -0.2600
-2.9533 CONVERTER -0.2600
-2.9533 CONVERTER? -0.2600
-2.6522 COPY -0.2589
-2.2543 CURRENT -0.2957
-2.6522 CUT -0.2589
-2.6522 DATE -0.2600
-2.6522 DELETE -0.2573
-2.1751 DISABLE -0.2952
-2.1751 ENABLE -0.2952
-2.9533 ESCAPE -0.2600
-2.9533 EXISTING -0.2962
-2.6522 EXIT -0.2600
-2.3512 EXPORT -0.2991
-1.9533 FILE -0.2568
-2.6522 FIND -0.2589
-2.6522 GOOGLE -0.2600
-2.4762 HELP -0.2584
-2.6522 HTML -0.2600
-2.3512 INSERT -0.2568
-2.6522 LATEX -0.2600
-2.6522 LEFT -0.2600
-2.3512 LINE -0.2600
-1.3735 ME -0.2792
-2.6522 MODE -0.2600
-2.9533 MY -0.3001
-2.9533 MYSELF -0.2600
-2.6522 NEW -0.2546
-2.6522 NORMAL -0.2589
-2.9533 OFFLINE -0.2600
-2.1751 OPEN -0.2552
-2.3512 ORIENTATION -0.2792
-2.6522 PASTE -0.2594
-2.6522 PDF -0.2600
-2.6522 PREFERENCES -0.2600
-2.6522 PRINT -0.2573
-2.9533 REDO -0.2600
-2.9533 REPLACE -0.2600
-2.6522 RIGHT -0.2600
-2.6522 RTF -0.2600
-2.3512 SAVE -0.2541
-2.6522 SEARCH -0.2996
-2.6522 SELECTED -0.2996
-2.9533 SETINGS -0.2600
-2.6522 SOMETHING -0.2600
-2.3512 STATUS -0.2600
-2.9533 TAB -0.2600
-2.9533 TABS -0.2600
-2.6522 TELL -0.3001
-2.4762 TEXT -0.2600
-2.6522 TIME -0.2600
-1.3098 TO -0.2668
-2.3512 TOOLBAR -0.2600
-2.6522 TOP -0.2600
-2.9533 UNDO -0.2600
-1.3735 WANT -0.2823
-2.9533 WIKI -0.2600
-2.9533 WIKIPEDIA -0.2600
-2.6522 YOU -0.2996
-2.3512 YOUR -0.2962

\2-grams:
-2.2095 <s> ABOUT -0.1761
-2.2095 <s> BOTTOM 0.0000
-1.9085 <s> CLOSE -0.0969
-2.2095 <s> CONVERTER 0.0000
-2.2095 <s> COPY -0.1761
-2.2095 <s> CUT -0.1761
-2.2095 <s> DATE 0.0000
-2.2095 <s> DELETE -0.1761
-1.7324 <s> DISABLE 0.0000
-1.7324 <s> ENABLE 0.0000
-2.2095 <s> ESCAPE 0.0000
-2.2095 <s> EXIT 0.0000
-2.2095 <s> FIND -0.1761
-2.2095 <s> GOOGLE 0.0000
-1.9085 <s> HELP -0.1249
-2.2095 <s> HTML 0.0000
-2.2095 <s> INSERT -0.2430
-2.2095 <s> LATEX 0.0000
-2.2095 <s> LEFT 0.0000
-2.2095 <s> NEW -0.1761
-2.2095 <s> NORMAL -0.1761
-2.2095 <s> OPEN -0.2632
-2.2095 <s> PASTE -0.1761
-2.2095 <s> PDF 0.0000
-2.2095 <s> PREFERENCES 0.0000
-2.2095 <s> PRINT -0.1761
-2.2095 <s> REDO 0.0000
-2.2095 <s> REPLACE 0.0000
-2.2095 <s> RIGHT 0.0000
-2.2095 <s> RTF 0.0000
-1.9085 <s> SAVE -0.1761
-2.2095 <s> SETINGS 0.0000
-2.2095 <s> TIME 0.0000
-2.2095 <s> TOP 0.0000
-2.2095 <s> UNDO 0.0000
-0.6297 <s> WANT 0.0000
-2.2095 <s> WIKI 0.0000
-0.6021 ABOUT </s> -0.3010
-0.6021 ABOUT MYSELF 0.0000
-0.6021 ALL </s> -0.3010
-0.6021 ALL TABS 0.0000
-1.0792 AS </s> -0.3010
-1.0792 AS HTML 0.0000
-1.0792 AS LATEX 0.0000
-1.0792 AS PDF 0.0000
-1.0792 AS RTF 0.0000
-1.0792 AS SOMETHING 0.0000
-0.3010 BOTTOM </s> -0.3010
-0.4771 CHANGE ORIENTATION 0.0000
-0.7782 CHANGE TO -0.2808
-0.3010 CLIPBOARD TEXT 0.0000
-0.9031 CLOSE </s> -0.3010
-0.6021 CLOSE ALL 0.0000
-0.9031 CLOSE CURRENT -0.2553
-0.3010 COMMAND LINE 0.0000
-0.3010 COMMANDS </s> -0.3010
-0.3010 CONVERTER </s> -0.3010
-0.3010 CONVERTER? </s> -0.3010
-0.6021 COPY </s> -0.3010
-0.6021 COPY SELECTED 0.0000
-0.3979 CURRENT FILE 0.0000
-1.0000 CURRENT TAB 0.0000
-0.6021 CUT </s> -0.3010
-0.6021 CUT SELECTED 0.0000
-0.3010 DATE </s> -0.3010
-0.6021 DELETE </s> -0.3010
-0.6021 DELETE CURRENT -0.0792
-0.7782 DISABLE COMMAND 0.0000
-0.7782 DISABLE STATUS 0.0000
-0.7782 DISABLE TOOLBAR 0.0000
-0.7782 ENABLE COMMAND 0.0000
-0.7782 ENABLE STATUS 0.0000
-0.7782 ENABLE TOOLBAR 0.0000
-0.3010 ESCAPE </s> -0.3010
-0.3010 EXISTING FILE -0.1761
-0.3010 EXIT </s> -0.3010
-0.3010 EXPORT YOUR 0.0000
-0.6021 FILE </s> -0.3010
-0.6021 FILE AS -0.0669
-0.6021 FIND </s> -0.3010
-0.6021 FIND SOMETHING 0.0000
-0.3010 GOOGLE </s> -0.3010
-0.7782 HELP </s> -0.3010
-0.7782 HELP COMMANDS 0.0000
-0.7782 HELP OFFLINE 0.0000
-0.3010 HTML </s> -0.3010
-0.9031 INSERT </s> -0.3010
-0.9031 INSERT DATE 0.0000
-0.9031 INSERT MODE 0.0000
-0.9031 INSERT TIME 0.0000
-0.3010 LATEX </s> -0.3010
-0.3010 LEFT </s> -0.3010
-0.3010 LINE </s> -0.3010
-0.3010 ME TO -0.0467
-0.3010 MODE </s> -0.3010
-0.3010 MY COMMANDS 0.0000
-0.3010 MYSELF </s> -0.3010
-0.6021 NEW </s> -0.3010
-0.6021 NEW FILE -0.1761
-0.6021 NORMAL </s> -0.3010
-0.6021 NORMAL MODE 0.0000
-0.3010 OFFLINE </s> -0.3010
-1.0792 OPEN </s> -0.3010
-1.0792 OPEN CONVERTER? 0.0000
-1.0792 OPEN EXISTING 0.0000
-1.0792 OPEN HELP -0.2218
-1.0792 OPEN NEW -0.1761
-1.0792 OPEN PREFERENCES 0.0000
-0.3010 ORIENTATION TO -0.2808
-0.6021 PASTE </s> -0.3010
-0.6021 PASTE CLIPBOARD 0.0000
-0.3010 PDF </s> -0.3010
-0.3010 PREFERENCES </s> -0.3010
-0.6021 PRINT </s> -0.3010
-0.6021 PRINT CURRENT -0.0792
-0.3010 REDO </s> -0.3010
-0.3010 REPLACE </s> -0.3010
-0.3010 RIGHT </s> -0.3010
-0.3010 RTF </s> -0.3010
-0.9031 SAVE </s> -0.3010
-0.9031 SAVE AS -0.2632
-0.6021 SAVE CURRENT -0.0792
-0.6021 SEARCH GOOGLE 0.0000
-0.6021 SEARCH WIKIPEDIA 0.0000
-0.3010 SELECTED TEXT 0.0000
-0.3010 SETINGS </s> -0.3010
-0.3010 SOMETHING </s> -0.3010
-0.3010 STATUS </s> -0.3010
-0.3010 TAB </s> -0.3010
-0.3010 TABS </s> -0.3010
-0.3010 TELL YOU 0.0000
-0.3010 TEXT </s> -0.3010
-0.3010 TIME </s> -0.3010
-1.9445 TO BOTTOM 0.0000
-1.1663 TO CHANGE 0.0000
-1.6435 TO CLOSE -0.0969
-1.9445 TO COPY -0.1761
-1.9445 TO CUT -0.1761
-1.9445 TO DELETE -0.1761
-1.4674 TO DISABLE 0.0000
-1.4674 TO ENABLE 0.0000
-1.9445 TO EXIT 0.0000
-1.3424 TO EXPORT 0.0000
-1.9445 TO FIND -0.1761
-1.4674 TO INSERT -0.0969
-1.9445 TO LEFT 0.0000
-1.9445 TO NORMAL -0.1761
-1.2455 TO OPEN -0.0669
-1.9445 TO PASTE -0.1761
-1.9445 TO PRINT -0.1761
-1.9445 TO RIGHT 0.0000
-1.6435 TO SAVE -0.1761
-1.6435 TO SEARCH 0.0000
-1.6435 TO TELL 0.0000
-1.9445 TO TOP 0.0000
-0.3010 TOOLBAR </s> -0.3010
-0.3010 TOP </s> -0.3010
-0.3010 UNDO </s> -0.3010
-0.3010 WANT ME 0.0000
-0.3010 WIKI </s> -0.3010
-0.3010 WIKIPEDIA </s> -0.3010
-0.6021 YOU ABOUT -0.1761
-0.6021 YOU MY 0.0000
-0.3010 YOUR FILE -0.1761

\3-grams:
-0.3010 <s> ABOUT </s>
-0.3010 <s> BOTTOM </s>
-0.6021 <s> CLOSE </s>
-0.6021 <s> CLOSE ALL
-0.3010 <s> CONVERTER </s>
-0.3010 <s> COPY </s>
-0.3010 <s> CUT </s>
-0.3010 <s> DATE </s>
-0.3010 <s> DELETE </s>
-0.7782 <s> DISABLE COMMAND
-0.7782 <s> DISABLE STATUS
-0.7782 <s> DISABLE TOOLBAR
-0.7782 <s> ENABLE COMMAND
-0.7782 <s> ENABLE STATUS
-0.7782 <s> ENABLE TOOLBAR
-0.3010 <s> ESCAPE </s>
-0.3010 <s> EXIT </s>
-0.3010 <s> FIND </s>
-0.3010 <s> GOOGLE </s>
-0.6021 <s> HELP COMMANDS
-0.6021 <s> HELP OFFLINE
-0.3010 <s> HTML </s>
-0.3010 <s> INSERT </s>
-0.3010 <s> LATEX </s>
-0.3010 <s> LEFT </s>
-0.3010 <s> NEW </s>
-0.3010 <s> NORMAL </s>
-0.3010 <s> OPEN </s>
-0.3010 <s> PASTE </s>
-0.3010 <s> PDF </s>
-0.3010 <s> PREFERENCES </s>
-0.3010 <s> PRINT </s>
-0.3010 <s> REDO </s>
-0.3010 <s> REPLACE </s>
-0.3010 <s> RIGHT </s>
-0.3010 <s> RTF </s>
-0.6021 <s> SAVE </s>
-0.6021 <s> SAVE AS
-0.3010 <s> SETINGS </s>
-0.3010 <s> TIME </s>
-0.3010 <s> TOP </s>
-0.3010 <s> UNDO </s>
-0.3010 <s> WANT ME
-0.3010 <s> WIKI </s>
-0.3010 ABOUT MYSELF </s>
-0.3010 ALL TABS </s>
-0.3010 AS HTML </s>
-0.3010 AS LATEX </s>
-0.3010 AS PDF </s>
-0.3010 AS RTF </s>
-0.3010 AS SOMETHING </s>
-0.3010 CHANGE ORIENTATION TO
-0.6021 CHANGE TO INSERT
-0.6021 CHANGE TO NORMAL
-0.3010 CLIPBOARD TEXT </s>
-0.6021 CLOSE ALL </s>
-0.6021 CLOSE ALL TABS
-0.3010 CLOSE CURRENT TAB
-0.3010 COMMAND LINE </s>
-0.3010 COPY SELECTED TEXT
-0.4260 CURRENT FILE </s>
-0.9031 CURRENT FILE AS
-0.3010 CURRENT TAB </s>
-0.3010 CUT SELECTED TEXT
-0.3010 DELETE CURRENT FILE
-0.3010 DISABLE COMMAND LINE
-0.3010 DISABLE STATUS </s>
-0.3010 DISABLE TOOLBAR </s>
-0.3010 ENABLE COMMAND LINE
-0.3010 ENABLE STATUS </s>
-0.3010 ENABLE TOOLBAR </s>
-0.3010 EXISTING FILE </s>
-0.3010 EXPORT YOUR FILE
-1.0000 FILE AS HTML
-1.0000 FILE AS LATEX
-1.0000 FILE AS PDF
-1.0000 FILE AS RTF
-1.0000 FILE AS SOMETHING
-0.3010 FIND SOMETHING </s>
-0.3010 HELP COMMANDS </s>
-0.3010 HELP OFFLINE </s>
-0.3010 INSERT DATE </s>
-0.3010 INSERT MODE </s>
-0.3010 INSERT TIME </s>
-1.1027 ME TO CHANGE
-1.5798 ME TO CLOSE
-1.8808 ME TO COPY
-1.8808 ME TO CUT
-1.8808 ME TO DELETE
-1.4037 ME TO DISABLE
-1.4037 ME TO ENABLE
-1.8808 ME TO EXIT
-1.2788 ME TO EXPORT
-1.8808 ME TO FIND
-1.5798 ME TO INSERT
-1.1818 ME TO OPEN
-1.8808 ME TO PASTE
-1.8808 ME TO PRINT
-1.5798 ME TO SAVE
-1.5798 ME TO SEARCH
-1.5798 ME TO TELL
-0.3010 MY COMMANDS </s>
-0.3010 NEW FILE </s>
-0.3010 NORMAL MODE </s>
-0.3010 OPEN CONVERTER? </s>
-0.3010 OPEN EXISTING FILE
-0.3010 OPEN HELP </s>
-0.3010 OPEN NEW FILE
-0.3010 OPEN PREFERENCES </s>
-0.9031 ORIENTATION TO BOTTOM
-0.9031 ORIENTATION TO LEFT
-0.9031 ORIENTATION TO RIGHT
-0.9031 ORIENTATION TO TOP
-0.3010 PASTE CLIPBOARD TEXT
-0.3010 PRINT CURRENT FILE
-0.3010 SAVE AS </s>
-0.3010 SAVE CURRENT FILE
-0.3010 SEARCH GOOGLE </s>
-0.3010 SEARCH WIKIPEDIA </s>
-0.3010 SELECTED TEXT </s>
-0.6021 TELL YOU ABOUT
-0.6021 TELL YOU MY
-0.3010 TO BOTTOM </s>
-0.4771 TO CHANGE ORIENTATION
-0.7782 TO CHANGE TO
-0.6021 TO CLOSE ALL
-0.6021 TO CLOSE CURRENT
-0.3010 TO COPY SELECTED
-0.3010 TO CUT SELECTED
-0.3010 TO DELETE CURRENT
-0.7782 TO DISABLE COMMAND
-0.7782 TO DISABLE STATUS
-0.7782 TO DISABLE TOOLBAR
-0.7782 TO ENABLE COMMAND
-0.7782 TO ENABLE STATUS
-0.7782 TO ENABLE TOOLBAR
-0.3010 TO EXIT </s>
-0.3010 TO EXPORT YOUR
-0.3010 TO FIND SOMETHING
-0.7782 TO INSERT DATE
-0.7782 TO INSERT MODE
-0.7782 TO INSERT TIME
-0.3010 TO LEFT </s>
-0.3010 TO NORMAL MODE
-1.0000 TO OPEN CONVERTER?
-1.0000 TO OPEN EXISTING
-1.0000 TO OPEN HELP
-1.0000 TO OPEN NEW
-1.0000 TO OPEN PREFERENCES
-0.3010 TO PASTE CLIPBOARD
-0.3010 TO PRINT CURRENT
-0.3010 TO RIGHT </s>
-0.3010 TO SAVE CURRENT
-0.6021 TO SEARCH GOOGLE
-0.6021 TO SEARCH WIKIPEDIA
-0.3010 TO TELL YOU
-0.3010 TO TOP </s>
-0.3010 WANT ME TO
-0.3010 YOU ABOUT MYSELF
-0.3010 YOU MY COMMANDS
-0.3010 YOUR FILE AS

\end\
