Language model created by QuickLM on Sat Jun 17 01:38:46 EDT 2017
Copyright (c) 1996-2010 Carnegie Mellon University and Alexander I. Rudnicky

The model is in standard ARPA format, designed by Doug Paul while he was at MITRE.

The code that was used to produce this language model is available in Open Source.
Please visit http://www.speech.cs.cmu.edu/tools/ for more information

The (fixed) discount mass is 0.5. The backoffs are computed using the ratio method.
This model based on a corpus of 187 sentences and 190 words

\data\
ngram 1=190
ngram 2=375
ngram 3=198

\1-grams:
-3.0592 #DEFINE -0.2237
-3.0592 #ELIF -0.2237
-3.0592 #ELSE -0.2237
-3.0592 #ENDIF -0.2237
-3.0592 #ERROR -0.2237
-3.0592 #IF -0.2237
-3.0592 #IFDEF -0.2237
-3.0592 #IFNDEF -0.2237
-3.0592 #INCLUDE -0.2237
-3.0592 #PRAGMA -0.2237
-3.0592 #UNDEF -0.2237
-3.0592 0 -0.2237
-3.0592 1 -0.2237
-3.0592 10 -0.2237
-3.0592 100 -0.2237
-3.0592 1000 -0.2237
-3.0592 100000 -0.2237
-3.0592 1000000 -0.2237
-3.0592 10000000 -0.2237
-3.0592 11 -0.2237
-3.0592 12 -0.2237
-3.0592 13 -0.2237
-3.0592 14 -0.2237
-3.0592 15 -0.2237
-3.0592 16 -0.2237
-3.0592 17 -0.2237
-3.0592 18 -0.2237
-3.0592 19 -0.2237
-3.0592 2 -0.2237
-3.0592 20 -0.2237
-3.0592 3 -0.2237
-3.0592 30 -0.2237
-3.0592 4 -0.2237
-3.0592 40 -0.2237
-3.0592 5 -0.2237
-3.0592 50 -0.2237
-3.0592 6 -0.2237
-3.0592 60 -0.2237
-3.0592 7 -0.2237
-3.0592 70 -0.2237
-3.0592 8 -0.2237
-3.0592 80 -0.2237
-3.0592 9 -0.2237
-3.0592 90 -0.2237
-0.7873 </s> -0.3010
-0.7873 <s> -0.2237
-3.0592 A -0.2237
-3.0592 ABOUT -0.2237
-3.0592 ADD -0.2237
-3.0592 ALL -0.2237
-3.0592 AS -0.2237
-3.0592 ASSERT.H -0.2237
-3.0592 AUTO -0.2237
-3.0592 B -0.2237
-3.0592 BOTTOM -0.2237
-3.0592 BREAK -0.2237
-3.0592 C -0.2237
-3.0592 CASE -0.2237
-3.0592 CHAR -0.2237
-3.0592 CLASS -0.2237
-2.7582 CLOSE -0.2232
-2.7582 COMMAND -0.3003
-3.0592 COMMANDS -0.2237
-3.0592 COMPLEX.HELP -0.2237
-3.0592 CONST -0.2237
-3.0592 CONTINUE -0.2237
-3.0592 CONVERTER -0.2237
-3.0592 COPY -0.2237
-3.0592 CTYPE.H -0.2237
-3.0592 CUT -0.2237
-3.0592 D -0.2237
-3.0592 DATE -0.2237
-3.0592 DEFAULT -0.2237
-3.0592 DELETE -0.2237
-2.5821 DISABLE -0.2988
-3.0592 DIVIDE -0.2237
-3.0592 DO -0.2237
-3.0592 DOT -0.2237
-3.0592 DOUBLE -0.2237
-3.0592 E -0.2237
-3.0592 ELSE -0.2237
-2.5821 ENABLE -0.2988
-3.0592 ENUM -0.2237
-3.0592 ERRNO.H -0.2237
-3.0592 ESCAPE -0.2237
-3.0592 EXIT -0.2237
-3.0592 EXTERN -0.2237
-3.0592 F -0.2237
-3.0592 FENV.H -0.2237
-3.0592 FIND -0.2237
-3.0592 FLOAT -0.2237
-3.0592 FLOAT.H -0.2237
-3.0592 FOR -0.2237
-3.0592 FUNCTION -0.2237
-3.0592 G -0.2237
-3.0592 GOOGLE -0.2237
-3.0592 GOTO -0.2237
-3.0592 H -0.2237
-2.7582 HELP -0.3003
-3.0592 HTML -0.2237
-3.0592 I -0.2237
-3.0592 IF -0.2237
-3.0592 INSERT -0.2237
-3.0592 INT -0.2237
-3.0592 INTTYPES.H -0.2237
-3.0592 ISO646.H -0.2237
-3.0592 J -0.2237
-3.0592 K -0.2237
-3.0592 L -0.2237
-3.0592 LATEX -0.2237
-3.0592 LEFT -0.2237
-3.0592 LIMITS.H -0.2237
-2.7582 LINE -0.2237
-3.0592 LOCAL -0.2237
-3.0592 LOCALE.H -0.2237
-3.0592 LONG -0.2237
-3.0592 M -0.2237
-3.0592 MATH.H -0.2237
-3.0592 MOD -0.2237
-3.0592 MULTIPLY -0.2237
-3.0592 N -0.2237
-3.0592 NEW -0.2237
-3.0592 NEWLINE -0.2237
-3.0592 NORMAL -0.2237
-3.0592 O -0.2237
-3.0592 OFFLINE -0.2237
-3.0592 OPEN -0.2237
-3.0592 P -0.2237
-3.0592 PASTE -0.2237
-3.0592 PDF -0.2237
-3.0592 POWER -0.2237
-3.0592 PREFERENCES -0.2237
-3.0592 PRINT -0.2237
-3.0592 Q -0.2237
-3.0592 R -0.2237
-3.0592 REDO -0.2237
-3.0592 REGISTER -0.2237
-3.0592 REPLACE -0.2237
-3.0592 RETURN -0.2237
-3.0592 RIGHT -0.2237
-3.0592 RTF -0.2237
-3.0592 S -0.2237
-2.7582 SAVE -0.2232
-3.0592 SETINGS -0.2237
-3.0592 SETJMP.H -0.2237
-3.0592 SHORT -0.2237
-3.0592 SIGNAL.H -0.2237
-3.0592 SIGNED -0.2237
-3.0592 SIZEOF -0.2237
-3.0592 STANDARD -0.2237
-3.0592 STATIC -0.2237
-2.7582 STATUS -0.2237
-3.0592 STDALIGN.H -0.2237
-3.0592 STDARG.H -0.2237
-3.0592 STDATOMIC.H -0.2237
-3.0592 STDBOOL.H -0.2237
-3.0592 STDDEF.H -0.2237
-3.0592 STDINT.H -0.2237
-3.0592 STDIO.H -0.2237
-3.0592 STDLIB.H -0.2237
-3.0592 STRING.H -0.2237
-3.0592 STRUCT -0.2237
-3.0592 SUBTRACT -0.2237
-3.0592 SWITCH -0.2237
-3.0592 T -0.2237
-3.0592 TGMATH.H -0.2237
-3.0592 THREADS.H -0.2237
-3.0592 TIME -0.2237
-3.0592 TIME.H -0.2237
-2.7582 TOOLBAR -0.2237
-3.0592 TOP -0.2237
-3.0592 TYPE.H -0.2237
-3.0592 TYPEDEF -0.2237
-3.0592 U -0.2237
-3.0592 UCHAR.H -0.2237
-3.0592 UNDO -0.2237
-3.0592 UNION -0.2237
-3.0592 UNSIGNED -0.2237
-3.0592 V -0.2237
-3.0592 VARIABLE -0.2237
-3.0592 VOID -0.2237
-3.0592 VOLATILE -0.2237
-3.0592 W -0.2237
-3.0592 WCHAR.H -0.2237
-3.0592 WCTYPE.H -0.2237
-3.0592 WHILE -0.2237
-3.0592 WIKI -0.2237
-3.0592 X -0.2237
-3.0592 Y -0.2237
-3.0592 Z -0.2237

\2-grams:
-0.3010 #DEFINE </s> -0.3010
-0.3010 #ELIF </s> -0.3010
-0.3010 #ELSE </s> -0.3010
-0.3010 #ENDIF </s> -0.3010
-0.3010 #ERROR </s> -0.3010
-0.3010 #IF </s> -0.3010
-0.3010 #IFDEF </s> -0.3010
-0.3010 #IFNDEF </s> -0.3010
-0.3010 #INCLUDE </s> -0.3010
-0.3010 #PRAGMA </s> -0.3010
-0.3010 #UNDEF </s> -0.3010
-0.3010 0 </s> -0.3010
-0.3010 1 </s> -0.3010
-0.3010 10 </s> -0.3010
-0.3010 100 </s> -0.3010
-0.3010 1000 </s> -0.3010
-0.3010 100000 </s> -0.3010
-0.3010 1000000 </s> -0.3010
-0.3010 10000000 </s> -0.3010
-0.3010 11 </s> -0.3010
-0.3010 12 </s> -0.3010
-0.3010 13 </s> -0.3010
-0.3010 14 </s> -0.3010
-0.3010 15 </s> -0.3010
-0.3010 16 </s> -0.3010
-0.3010 17 </s> -0.3010
-0.3010 18 </s> -0.3010
-0.3010 19 </s> -0.3010
-0.3010 2 </s> -0.3010
-0.3010 20 </s> -0.3010
-0.3010 3 </s> -0.3010
-0.3010 30 </s> -0.3010
-0.3010 4 </s> -0.3010
-0.3010 40 </s> -0.3010
-0.3010 5 </s> -0.3010
-0.3010 50 </s> -0.3010
-0.3010 6 </s> -0.3010
-0.3010 60 </s> -0.3010
-0.3010 7 </s> -0.3010
-0.3010 70 </s> -0.3010
-0.3010 8 </s> -0.3010
-0.3010 80 </s> -0.3010
-0.3010 9 </s> -0.3010
-0.3010 90 </s> -0.3010
-2.5729 <s> #DEFINE 0.0000
-2.5729 <s> #ELIF 0.0000
-2.5729 <s> #ELSE 0.0000
-2.5729 <s> #ENDIF 0.0000
-2.5729 <s> #ERROR 0.0000
-2.5729 <s> #IF 0.0000
-2.5729 <s> #IFDEF 0.0000
-2.5729 <s> #IFNDEF 0.0000
-2.5729 <s> #INCLUDE 0.0000
-2.5729 <s> #PRAGMA 0.0000
-2.5729 <s> #UNDEF 0.0000
-2.5729 <s> 0 0.0000
-2.5729 <s> 1 0.0000
-2.5729 <s> 10 0.0000
-2.5729 <s> 100 0.0000
-2.5729 <s> 1000 0.0000
-2.5729 <s> 100000 0.0000
-2.5729 <s> 1000000 0.0000
-2.5729 <s> 10000000 0.0000
-2.5729 <s> 11 0.0000
-2.5729 <s> 12 0.0000
-2.5729 <s> 13 0.0000
-2.5729 <s> 14 0.0000
-2.5729 <s> 15 0.0000
-2.5729 <s> 16 0.0000
-2.5729 <s> 17 0.0000
-2.5729 <s> 18 0.0000
-2.5729 <s> 19 0.0000
-2.5729 <s> 2 0.0000
-2.5729 <s> 20 0.0000
-2.5729 <s> 3 0.0000
-2.5729 <s> 30 0.0000
-2.5729 <s> 4 0.0000
-2.5729 <s> 40 0.0000
-2.5729 <s> 5 0.0000
-2.5729 <s> 50 0.0000
-2.5729 <s> 6 0.0000
-2.5729 <s> 60 0.0000
-2.5729 <s> 7 0.0000
-2.5729 <s> 70 0.0000
-2.5729 <s> 8 0.0000
-2.5729 <s> 80 0.0000
-2.5729 <s> 9 0.0000
-2.5729 <s> 90 0.0000
-2.5729 <s> A 0.0000
-2.5729 <s> ABOUT 0.0000
-2.5729 <s> ADD 0.0000
-2.5729 <s> ASSERT.H 0.0000
-2.5729 <s> AUTO 0.0000
-2.5729 <s> B 0.0000
-2.5729 <s> BOTTOM 0.0000
-2.5729 <s> BREAK 0.0000
-2.5729 <s> C 0.0000
-2.5729 <s> CASE 0.0000
-2.5729 <s> CHAR 0.0000
-2.5729 <s> CLASS 0.0000
-2.2718 <s> CLOSE 0.0000
-2.5729 <s> COMPLEX.HELP 0.0000
-2.5729 <s> CONST 0.0000
-2.5729 <s> CONTINUE 0.0000
-2.5729 <s> CONVERTER 0.0000
-2.5729 <s> COPY 0.0000
-2.5729 <s> CTYPE.H 0.0000
-2.5729 <s> CUT 0.0000
-2.5729 <s> D 0.0000
-2.5729 <s> DATE 0.0000
-2.5729 <s> DEFAULT 0.0000
-2.5729 <s> DELETE 0.0000
-2.0958 <s> DISABLE 0.0000
-2.5729 <s> DIVIDE 0.0000
-2.5729 <s> DO 0.0000
-2.5729 <s> DOT 0.0000
-2.5729 <s> DOUBLE 0.0000
-2.5729 <s> E 0.0000
-2.5729 <s> ELSE 0.0000
-2.0958 <s> ENABLE 0.0000
-2.5729 <s> ENUM 0.0000
-2.5729 <s> ERRNO.H 0.0000
-2.5729 <s> ESCAPE 0.0000
-2.5729 <s> EXIT 0.0000
-2.5729 <s> EXTERN 0.0000
-2.5729 <s> F 0.0000
-2.5729 <s> FENV.H 0.0000
-2.5729 <s> FIND 0.0000
-2.5729 <s> FLOAT 0.0000
-2.5729 <s> FLOAT.H 0.0000
-2.5729 <s> FOR 0.0000
-2.5729 <s> FUNCTION 0.0000
-2.5729 <s> G 0.0000
-2.5729 <s> GOOGLE 0.0000
-2.5729 <s> GOTO 0.0000
-2.5729 <s> H 0.0000
-2.2718 <s> HELP 0.0000
-2.5729 <s> HTML 0.0000
-2.5729 <s> I 0.0000
-2.5729 <s> IF 0.0000
-2.5729 <s> INSERT 0.0000
-2.5729 <s> INT 0.0000
-2.5729 <s> INTTYPES.H 0.0000
-2.5729 <s> ISO646.H 0.0000
-2.5729 <s> J 0.0000
-2.5729 <s> K 0.0000
-2.5729 <s> L 0.0000
-2.5729 <s> LATEX 0.0000
-2.5729 <s> LEFT 0.0000
-2.5729 <s> LIMITS.H 0.0000
-2.5729 <s> LOCAL 0.0000
-2.5729 <s> LOCALE.H 0.0000
-2.5729 <s> LONG 0.0000
-2.5729 <s> M 0.0000
-2.5729 <s> MATH.H 0.0000
-2.5729 <s> MOD 0.0000
-2.5729 <s> MULTIPLY 0.0000
-2.5729 <s> N 0.0000
-2.5729 <s> NEW 0.0000
-2.5729 <s> NEWLINE 0.0000
-2.5729 <s> NORMAL 0.0000
-2.5729 <s> O 0.0000
-2.5729 <s> OPEN 0.0000
-2.5729 <s> P 0.0000
-2.5729 <s> PASTE 0.0000
-2.5729 <s> PDF 0.0000
-2.5729 <s> POWER 0.0000
-2.5729 <s> PREFERENCES 0.0000
-2.5729 <s> PRINT 0.0000
-2.5729 <s> Q 0.0000
-2.5729 <s> R 0.0000
-2.5729 <s> REDO 0.0000
-2.5729 <s> REGISTER 0.0000
-2.5729 <s> REPLACE 0.0000
-2.5729 <s> RETURN 0.0000
-2.5729 <s> RIGHT 0.0000
-2.5729 <s> RTF 0.0000
-2.5729 <s> S 0.0000
-2.2718 <s> SAVE 0.0000
-2.5729 <s> SETINGS 0.0000
-2.5729 <s> SETJMP.H 0.0000
-2.5729 <s> SHORT 0.0000
-2.5729 <s> SIGNAL.H 0.0000
-2.5729 <s> SIGNED 0.0000
-2.5729 <s> SIZEOF 0.0000
-2.5729 <s> STANDARD 0.0000
-2.5729 <s> STATIC 0.0000
-2.5729 <s> STDALIGN.H 0.0000
-2.5729 <s> STDARG.H 0.0000
-2.5729 <s> STDATOMIC.H 0.0000
-2.5729 <s> STDBOOL.H 0.0000
-2.5729 <s> STDDEF.H 0.0000
-2.5729 <s> STDINT.H 0.0000
-2.5729 <s> STDIO.H 0.0000
-2.5729 <s> STDLIB.H 0.0000
-2.5729 <s> STRING.H 0.0000
-2.5729 <s> STRUCT 0.0000
-2.5729 <s> SUBTRACT 0.0000
-2.5729 <s> SWITCH 0.0000
-2.5729 <s> T 0.0000
-2.5729 <s> TGMATH.H 0.0000
-2.5729 <s> THREADS.H 0.0000
-2.5729 <s> TIME 0.0000
-2.5729 <s> TIME.H 0.0000
-2.5729 <s> TOP 0.0000
-2.5729 <s> TYPE.H 0.0000
-2.5729 <s> TYPEDEF 0.0000
-2.5729 <s> U 0.0000
-2.5729 <s> UCHAR.H 0.0000
-2.5729 <s> UNDO 0.0000
-2.5729 <s> UNION 0.0000
-2.5729 <s> UNSIGNED 0.0000
-2.5729 <s> V 0.0000
-2.5729 <s> VARIABLE 0.0000
-2.5729 <s> VOID 0.0000
-2.5729 <s> VOLATILE 0.0000
-2.5729 <s> W 0.0000
-2.5729 <s> WCHAR.H 0.0000
-2.5729 <s> WCTYPE.H 0.0000
-2.5729 <s> WHILE 0.0000
-2.5729 <s> WIKI 0.0000
-2.5729 <s> X 0.0000
-2.5729 <s> Y 0.0000
-2.5729 <s> Z 0.0000
-0.3010 A </s> -0.3010
-0.3010 ABOUT </s> -0.3010
-0.3010 ADD </s> -0.3010
-0.3010 ALL </s> -0.3010
-0.3010 AS </s> -0.3010
-0.3010 ASSERT.H </s> -0.3010
-0.3010 AUTO </s> -0.3010
-0.3010 B </s> -0.3010
-0.3010 BOTTOM </s> -0.3010
-0.3010 BREAK </s> -0.3010
-0.3010 C </s> -0.3010
-0.3010 CASE </s> -0.3010
-0.3010 CHAR </s> -0.3010
-0.3010 CLASS </s> -0.3010
-0.6021 CLOSE </s> -0.3010
-0.6021 CLOSE ALL 0.0000
-0.3010 COMMAND LINE 0.0000
-0.3010 COMMANDS </s> -0.3010
-0.3010 COMPLEX.HELP </s> -0.3010
-0.3010 CONST </s> -0.3010
-0.3010 CONTINUE </s> -0.3010
-0.3010 CONVERTER </s> -0.3010
-0.3010 COPY </s> -0.3010
-0.3010 CTYPE.H </s> -0.3010
-0.3010 CUT </s> -0.3010
-0.3010 D </s> -0.3010
-0.3010 DATE </s> -0.3010
-0.3010 DEFAULT </s> -0.3010
-0.3010 DELETE </s> -0.3010
-0.7782 DISABLE COMMAND 0.0000
-0.7782 DISABLE STATUS 0.0000
-0.7782 DISABLE TOOLBAR 0.0000
-0.3010 DIVIDE </s> -0.3010
-0.3010 DO </s> -0.3010
-0.3010 DOT </s> -0.3010
-0.3010 DOUBLE </s> -0.3010
-0.3010 E </s> -0.3010
-0.3010 ELSE </s> -0.3010
-0.7782 ENABLE COMMAND 0.0000
-0.7782 ENABLE STATUS 0.0000
-0.7782 ENABLE TOOLBAR 0.0000
-0.3010 ENUM </s> -0.3010
-0.3010 ERRNO.H </s> -0.3010
-0.3010 ESCAPE </s> -0.3010
-0.3010 EXIT </s> -0.3010
-0.3010 EXTERN </s> -0.3010
-0.3010 F </s> -0.3010
-0.3010 FENV.H </s> -0.3010
-0.3010 FIND </s> -0.3010
-0.3010 FLOAT </s> -0.3010
-0.3010 FLOAT.H </s> -0.3010
-0.3010 FOR </s> -0.3010
-0.3010 FUNCTION </s> -0.3010
-0.3010 G </s> -0.3010
-0.3010 GOOGLE </s> -0.3010
-0.3010 GOTO </s> -0.3010
-0.3010 H </s> -0.3010
-0.6021 HELP COMMANDS 0.0000
-0.6021 HELP OFFLINE 0.0000
-0.3010 HTML </s> -0.3010
-0.3010 I </s> -0.3010
-0.3010 IF </s> -0.3010
-0.3010 INSERT </s> -0.3010
-0.3010 INT </s> -0.3010
-0.3010 INTTYPES.H </s> -0.3010
-0.3010 ISO646.H </s> -0.3010
-0.3010 J </s> -0.3010
-0.3010 K </s> -0.3010
-0.3010 L </s> -0.3010
-0.3010 LATEX </s> -0.3010
-0.3010 LEFT </s> -0.3010
-0.3010 LIMITS.H </s> -0.3010
-0.3010 LINE </s> -0.3010
-0.3010 LOCAL </s> -0.3010
-0.3010 LOCALE.H </s> -0.3010
-0.3010 LONG </s> -0.3010
-0.3010 M </s> -0.3010
-0.3010 MATH.H </s> -0.3010
-0.3010 MOD </s> -0.3010
-0.3010 MULTIPLY </s> -0.3010
-0.3010 N </s> -0.3010
-0.3010 NEW </s> -0.3010
-0.3010 NEWLINE </s> -0.3010
-0.3010 NORMAL </s> -0.3010
-0.3010 O </s> -0.3010
-0.3010 OFFLINE </s> -0.3010
-0.3010 OPEN </s> -0.3010
-0.3010 P </s> -0.3010
-0.3010 PASTE </s> -0.3010
-0.3010 PDF </s> -0.3010
-0.3010 POWER </s> -0.3010
-0.3010 PREFERENCES </s> -0.3010
-0.3010 PRINT </s> -0.3010
-0.3010 Q </s> -0.3010
-0.3010 R </s> -0.3010
-0.3010 REDO </s> -0.3010
-0.3010 REGISTER </s> -0.3010
-0.3010 REPLACE </s> -0.3010
-0.3010 RETURN </s> -0.3010
-0.3010 RIGHT </s> -0.3010
-0.3010 RTF </s> -0.3010
-0.3010 S </s> -0.3010
-0.6021 SAVE </s> -0.3010
-0.6021 SAVE AS 0.0000
-0.3010 SETINGS </s> -0.3010
-0.3010 SETJMP.H </s> -0.3010
-0.3010 SHORT </s> -0.3010
-0.3010 SIGNAL.H </s> -0.3010
-0.3010 SIGNED </s> -0.3010
-0.3010 SIZEOF </s> -0.3010
-0.3010 STANDARD </s> -0.3010
-0.3010 STATIC </s> -0.3010
-0.3010 STATUS </s> -0.3010
-0.3010 STDALIGN.H </s> -0.3010
-0.3010 STDARG.H </s> -0.3010
-0.3010 STDATOMIC.H </s> -0.3010
-0.3010 STDBOOL.H </s> -0.3010
-0.3010 STDDEF.H </s> -0.3010
-0.3010 STDINT.H </s> -0.3010
-0.3010 STDIO.H </s> -0.3010
-0.3010 STDLIB.H </s> -0.3010
-0.3010 STRING.H </s> -0.3010
-0.3010 STRUCT </s> -0.3010
-0.3010 SUBTRACT </s> -0.3010
-0.3010 SWITCH </s> -0.3010
-0.3010 T </s> -0.3010
-0.3010 TGMATH.H </s> -0.3010
-0.3010 THREADS.H </s> -0.3010
-0.3010 TIME </s> -0.3010
-0.3010 TIME.H </s> -0.3010
-0.3010 TOOLBAR </s> -0.3010
-0.3010 TOP </s> -0.3010
-0.3010 TYPE.H </s> -0.3010
-0.3010 TYPEDEF </s> -0.3010
-0.3010 U </s> -0.3010
-0.3010 UCHAR.H </s> -0.3010
-0.3010 UNDO </s> -0.3010
-0.3010 UNION </s> -0.3010
-0.3010 UNSIGNED </s> -0.3010
-0.3010 V </s> -0.3010
-0.3010 VARIABLE </s> -0.3010
-0.3010 VOID </s> -0.3010
-0.3010 VOLATILE </s> -0.3010
-0.3010 W </s> -0.3010
-0.3010 WCHAR.H </s> -0.3010
-0.3010 WCTYPE.H </s> -0.3010
-0.3010 WHILE </s> -0.3010
-0.3010 WIKI </s> -0.3010
-0.3010 X </s> -0.3010
-0.3010 Y </s> -0.3010
-0.3010 Z </s> -0.3010

\3-grams:
-0.3010 <s> #DEFINE </s>
-0.3010 <s> #ELIF </s>
-0.3010 <s> #ELSE </s>
-0.3010 <s> #ENDIF </s>
-0.3010 <s> #ERROR </s>
-0.3010 <s> #IF </s>
-0.3010 <s> #IFDEF </s>
-0.3010 <s> #IFNDEF </s>
-0.3010 <s> #INCLUDE </s>
-0.3010 <s> #PRAGMA </s>
-0.3010 <s> #UNDEF </s>
-0.3010 <s> 0 </s>
-0.3010 <s> 1 </s>
-0.3010 <s> 10 </s>
-0.3010 <s> 100 </s>
-0.3010 <s> 1000 </s>
-0.3010 <s> 100000 </s>
-0.3010 <s> 1000000 </s>
-0.3010 <s> 10000000 </s>
-0.3010 <s> 11 </s>
-0.3010 <s> 12 </s>
-0.3010 <s> 13 </s>
-0.3010 <s> 14 </s>
-0.3010 <s> 15 </s>
-0.3010 <s> 16 </s>
-0.3010 <s> 17 </s>
-0.3010 <s> 18 </s>
-0.3010 <s> 19 </s>
-0.3010 <s> 2 </s>
-0.3010 <s> 20 </s>
-0.3010 <s> 3 </s>
-0.3010 <s> 30 </s>
-0.3010 <s> 4 </s>
-0.3010 <s> 40 </s>
-0.3010 <s> 5 </s>
-0.3010 <s> 50 </s>
-0.3010 <s> 6 </s>
-0.3010 <s> 60 </s>
-0.3010 <s> 7 </s>
-0.3010 <s> 70 </s>
-0.3010 <s> 8 </s>
-0.3010 <s> 80 </s>
-0.3010 <s> 9 </s>
-0.3010 <s> 90 </s>
-0.3010 <s> A </s>
-0.3010 <s> ABOUT </s>
-0.3010 <s> ADD </s>
-0.3010 <s> ASSERT.H </s>
-0.3010 <s> AUTO </s>
-0.3010 <s> B </s>
-0.3010 <s> BOTTOM </s>
-0.3010 <s> BREAK </s>
-0.3010 <s> C </s>
-0.3010 <s> CASE </s>
-0.3010 <s> CHAR </s>
-0.3010 <s> CLASS </s>
-0.6021 <s> CLOSE </s>
-0.6021 <s> CLOSE ALL
-0.3010 <s> COMPLEX.HELP </s>
-0.3010 <s> CONST </s>
-0.3010 <s> CONTINUE </s>
-0.3010 <s> CONVERTER </s>
-0.3010 <s> COPY </s>
-0.3010 <s> CTYPE.H </s>
-0.3010 <s> CUT </s>
-0.3010 <s> D </s>
-0.3010 <s> DATE </s>
-0.3010 <s> DEFAULT </s>
-0.3010 <s> DELETE </s>
-0.7782 <s> DISABLE COMMAND
-0.7782 <s> DISABLE STATUS
-0.7782 <s> DISABLE TOOLBAR
-0.3010 <s> DIVIDE </s>
-0.3010 <s> DO </s>
-0.3010 <s> DOT </s>
-0.3010 <s> DOUBLE </s>
-0.3010 <s> E </s>
-0.3010 <s> ELSE </s>
-0.7782 <s> ENABLE COMMAND
-0.7782 <s> ENABLE STATUS
-0.7782 <s> ENABLE TOOLBAR
-0.3010 <s> ENUM </s>
-0.3010 <s> ERRNO.H </s>
-0.3010 <s> ESCAPE </s>
-0.3010 <s> EXIT </s>
-0.3010 <s> EXTERN </s>
-0.3010 <s> F </s>
-0.3010 <s> FENV.H </s>
-0.3010 <s> FIND </s>
-0.3010 <s> FLOAT </s>
-0.3010 <s> FLOAT.H </s>
-0.3010 <s> FOR </s>
-0.3010 <s> FUNCTION </s>
-0.3010 <s> G </s>
-0.3010 <s> GOOGLE </s>
-0.3010 <s> GOTO </s>
-0.3010 <s> H </s>
-0.6021 <s> HELP COMMANDS
-0.6021 <s> HELP OFFLINE
-0.3010 <s> HTML </s>
-0.3010 <s> I </s>
-0.3010 <s> IF </s>
-0.3010 <s> INSERT </s>
-0.3010 <s> INT </s>
-0.3010 <s> INTTYPES.H </s>
-0.3010 <s> ISO646.H </s>
-0.3010 <s> J </s>
-0.3010 <s> K </s>
-0.3010 <s> L </s>
-0.3010 <s> LATEX </s>
-0.3010 <s> LEFT </s>
-0.3010 <s> LIMITS.H </s>
-0.3010 <s> LOCAL </s>
-0.3010 <s> LOCALE.H </s>
-0.3010 <s> LONG </s>
-0.3010 <s> M </s>
-0.3010 <s> MATH.H </s>
-0.3010 <s> MOD </s>
-0.3010 <s> MULTIPLY </s>
-0.3010 <s> N </s>
-0.3010 <s> NEW </s>
-0.3010 <s> NEWLINE </s>
-0.3010 <s> NORMAL </s>
-0.3010 <s> O </s>
-0.3010 <s> OPEN </s>
-0.3010 <s> P </s>
-0.3010 <s> PASTE </s>
-0.3010 <s> PDF </s>
-0.3010 <s> POWER </s>
-0.3010 <s> PREFERENCES </s>
-0.3010 <s> PRINT </s>
-0.3010 <s> Q </s>
-0.3010 <s> R </s>
-0.3010 <s> REDO </s>
-0.3010 <s> REGISTER </s>
-0.3010 <s> REPLACE </s>
-0.3010 <s> RETURN </s>
-0.3010 <s> RIGHT </s>
-0.3010 <s> RTF </s>
-0.3010 <s> S </s>
-0.6021 <s> SAVE </s>
-0.6021 <s> SAVE AS
-0.3010 <s> SETINGS </s>
-0.3010 <s> SETJMP.H </s>
-0.3010 <s> SHORT </s>
-0.3010 <s> SIGNAL.H </s>
-0.3010 <s> SIGNED </s>
-0.3010 <s> SIZEOF </s>
-0.3010 <s> STANDARD </s>
-0.3010 <s> STATIC </s>
-0.3010 <s> STDALIGN.H </s>
-0.3010 <s> STDARG.H </s>
-0.3010 <s> STDATOMIC.H </s>
-0.3010 <s> STDBOOL.H </s>
-0.3010 <s> STDDEF.H </s>
-0.3010 <s> STDINT.H </s>
-0.3010 <s> STDIO.H </s>
-0.3010 <s> STDLIB.H </s>
-0.3010 <s> STRING.H </s>
-0.3010 <s> STRUCT </s>
-0.3010 <s> SUBTRACT </s>
-0.3010 <s> SWITCH </s>
-0.3010 <s> T </s>
-0.3010 <s> TGMATH.H </s>
-0.3010 <s> THREADS.H </s>
-0.3010 <s> TIME </s>
-0.3010 <s> TIME.H </s>
-0.3010 <s> TOP </s>
-0.3010 <s> TYPE.H </s>
-0.3010 <s> TYPEDEF </s>
-0.3010 <s> U </s>
-0.3010 <s> UCHAR.H </s>
-0.3010 <s> UNDO </s>
-0.3010 <s> UNION </s>
-0.3010 <s> UNSIGNED </s>
-0.3010 <s> V </s>
-0.3010 <s> VARIABLE </s>
-0.3010 <s> VOID </s>
-0.3010 <s> VOLATILE </s>
-0.3010 <s> W </s>
-0.3010 <s> WCHAR.H </s>
-0.3010 <s> WCTYPE.H </s>
-0.3010 <s> WHILE </s>
-0.3010 <s> WIKI </s>
-0.3010 <s> X </s>
-0.3010 <s> Y </s>
-0.3010 <s> Z </s>
-0.3010 CLOSE ALL </s>
-0.3010 COMMAND LINE </s>
-0.3010 DISABLE COMMAND LINE
-0.3010 DISABLE STATUS </s>
-0.3010 DISABLE TOOLBAR </s>
-0.3010 ENABLE COMMAND LINE
-0.3010 ENABLE STATUS </s>
-0.3010 ENABLE TOOLBAR </s>
-0.3010 HELP COMMANDS </s>
-0.3010 HELP OFFLINE </s>
-0.3010 SAVE AS </s>

\end\
